digraph Tree {
node [shape=box] ;
0 [label="X[21] <= 0.134\nentropy = 0.782\nsamples = 185\nvalue = [43, 142]"] ;
1 [label="X[1] <= 229.18\nentropy = 0.845\nsamples = 44\nvalue = [32, 12]"] ;
0 -> 1 [labeldistance=2.5, labelangle=45, headlabel="True"] ;
2 [label="X[20] <= 1.983\nentropy = 1.0\nsamples = 24\nvalue = [12, 12]"] ;
1 -> 2 ;
3 [label="entropy = 0.0\nsamples = 7\nvalue = [7, 0]"] ;
2 -> 3 ;
4 [label="X[17] <= 0.728\nentropy = 0.874\nsamples = 17\nvalue = [5, 12]"] ;
2 -> 4 ;
5 [label="entropy = 0.0\nsamples = 9\nvalue = [0, 9]"] ;
4 -> 5 ;
6 [label="X[7] <= 0.004\nentropy = 0.954\nsamples = 8\nvalue = [5, 3]"] ;
4 -> 6 ;
7 [label="entropy = 0.0\nsamples = 4\nvalue = [4, 0]"] ;
6 -> 7 ;
8 [label="X[3] <= 0.004\nentropy = 0.811\nsamples = 4\nvalue = [1, 3]"] ;
6 -> 8 ;
9 [label="entropy = 0.0\nsamples = 3\nvalue = [0, 3]"] ;
8 -> 9 ;
10 [label="entropy = 0.0\nsamples = 1\nvalue = [1, 0]"] ;
8 -> 10 ;
11 [label="entropy = 0.0\nsamples = 20\nvalue = [20, 0]"] ;
1 -> 11 ;
12 [label="X[18] <= -5.589\nentropy = 0.395\nsamples = 141\nvalue = [11, 130]"] ;
0 -> 12 [labeldistance=2.5, labelangle=-45, headlabel="False"] ;
13 [label="X[0] <= 117.986\nentropy = 0.694\nsamples = 59\nvalue = [11, 48]"] ;
12 -> 13 ;
14 [label="X[13] <= 0.028\nentropy = 0.985\nsamples = 14\nvalue = [8, 6]"] ;
13 -> 14 ;
15 [label="X[16] <= 0.62\nentropy = 0.503\nsamples = 9\nvalue = [8, 1]"] ;
14 -> 15 ;
16 [label="entropy = 0.0\nsamples = 8\nvalue = [8, 0]"] ;
15 -> 16 ;
17 [label="entropy = 0.0\nsamples = 1\nvalue = [0, 1]"] ;
15 -> 17 ;
18 [label="entropy = 0.0\nsamples = 5\nvalue = [0, 5]"] ;
14 -> 18 ;
19 [label="X[20] <= 2.735\nentropy = 0.353\nsamples = 45\nvalue = [3, 42]"] ;
13 -> 19 ;
20 [label="X[17] <= 0.785\nentropy = 0.165\nsamples = 41\nvalue = [1, 40]"] ;
19 -> 20 ;
21 [label="entropy = 0.0\nsamples = 40\nvalue = [0, 40]"] ;
20 -> 21 ;
22 [label="entropy = 0.0\nsamples = 1\nvalue = [1, 0]"] ;
20 -> 22 ;
23 [label="X[15] <= 17.661\nentropy = 1.0\nsamples = 4\nvalue = [2, 2]"] ;
19 -> 23 ;
24 [label="entropy = 0.0\nsamples = 2\nvalue = [0, 2]"] ;
23 -> 24 ;
25 [label="entropy = 0.0\nsamples = 2\nvalue = [2, 0]"] ;
23 -> 25 ;
26 [label="entropy = 0.0\nsamples = 82\nvalue = [0, 82]"] ;
12 -> 26 ;
}